digraph Tree {
node [shape=box, fontname="helvetica"] ;
edge [fontname="helvetica"] ;
0 [label="age_1 <= 0.5\ngini = 0.48\nsamples = 10\nvalue = [4, 6]"] ;
1 [label="compition_5 <= 0.5\ngini = 0.245\nsamples = 7\nvalue = [1, 6]"] ;
0 -> 1 [labeldistance=2.5, labelangle=45, headlabel="True"] ;
2 [label="age_2 <= 0.5\ngini = 0.444\nsamples = 3\nvalue = [1, 2]"] ;
1 -> 2 ;
3 [label="gini = 0.0\nsamples = 1\nvalue = [0, 1]"] ;
2 -> 3 ;
4 [label="type_6 <= 0.5\ngini = 0.5\nsamples = 2\nvalue = [1, 1]"] ;
2 -> 4 ;
5 [label="gini = 0.0\nsamples = 1\nvalue = [0, 1]"] ;
4 -> 5 ;
6 [label="gini = 0.0\nsamples = 1\nvalue = [1, 0]"] ;
4 -> 6 ;
7 [label="gini = 0.0\nsamples = 4\nvalue = [0, 4]"] ;
1 -> 7 ;
8 [label="gini = 0.0\nsamples = 3\nvalue = [3, 0]"] ;
0 -> 8 [labeldistance=2.5, labelangle=-45, headlabel="False"] ;
}